3 128
U-Q 6.963490844527386e-07 2.121784581275689e-07 3.1217673553319333e-06 2.6767065547421677e-06 5.867567470560891e-07 -4.5093069997746885e-06 1.1142979220683303e-05 -3.9479431365895855e-06 4.825458288050454 5.6571564998860335 5.391352960301852 5.125696129340458 2.6204215573724805 5.114827665711625 4.420389746314363e-05 4.915841037748098 -2.1436493317854834e-05 5.3139550163114055 -3.77982831069831e-07 5.334237639142636 3.667077804003713 1.132803828905162e-05 -2.2495425477979743e-05 4.4252013693779755e-06 -1.2785162738784495e-05 1.5124044855859554e-05 5.561975178910608 7.3969507349930986e-06 1.34502157972216e-05 6.231606358714321e-07 3.126427491684292 -7.585301077874289e-07 -8.306074246144953e-06 8.491223987977929e-07 3.337570847559194e-06 -4.028445469361034e-05 -8.426885510237597e-06 -5.18354822179831e-06 5.419426556301341 4.85266628658657 4.49243113605877 3.7675244158418315 4.698820957454059 -7.653328919862705e-06 5.16581922800116 4.212422087589523 5.721064403278815 -1.729114889326298e-05 5.644068952082374 5.134226630953671 4.84580501976555 1.0476056378898885e-05 5.279948097705135 5.221915439783081 7.353003097503335e-06 -2.0348680514873334e-08 -0.09440279677098981 6.486208675629126e-06 4.803665792567885 4.945274787572773 5.082533338729313 -2.3467110321396183e-06 4.952245260643448 4.7821959944236445 -2.7460869157043057 5.389406122239135 4.428888689200764 5.078809744281839 3.486358195334167 7.20774847265995e-06 5.225577364070268 5.27935638861636 -3.490597263390713e-05 -4.7772635645350845e-05 0.564936562910214 -1.3719165200588236e-06 5.310492996668209e-06 4.19051463533138 -2.338323684350359e-05 -0.0010210179525117127 3.9615073006686093e-07 5.197827241341398 -1.903804262172525e-05 -8.350341029157269e-06 -3.2432637724037957e-06 0.32338181178548503 5.249491736695848 4.775519929890049 -1.062696005901114e-05 3.8476081402317113 3.1213699885984676 1.8791805554275774e-05 5.348397757136018 -0.007258433318880524 -3.456331862814498e-05 -2.6707655361142475 -2.664632541467041 -8.665183545705347e-06 4.631306519080078 -6.000000646536577 -0.24382869710223684 -0.16726337453447168 -8.96172301932659e-06 5.492873318765557 0.4600667524371984 3.586348597479524 1.5990915739649978 4.781481040315606 -2.038932855096237e-07 5.685310018167383 5.391186217569702 5.062711766143236 3.947603624942175 -3.4775176558476745e-06 -4.421514123489454e-06 4.185566453113768e-06 3.390322181238856 5.7845001158703395 0.0004609781663470755 3.3700930982507495e-05 5.0950421995077555 4.59273601338976 -3.7550523071514025e-05 3.244248468992445e-06 5.605497356188037 4.559892370904612e-06 -3.759510171137227e-07 5.025543661078986
U-Q,U-Q 6.000002830730068 4.616063512454437 5.823868566372208 6.0000032424905525 -2.8282008849515976e-06 4.946390419289227 5.555294111735907 1.0351979641901166 -0.010652854950405494 -1.2707513564895777e-05 -5.807824082478988e-06 -3.8657724059017305e-05 4.266881348343887 -4.1910544627824685e-06 2.3377480546527525e-06 -5.0311607530580924e-05 -0.0001540654862268102 -1.4848349212784055e-05 -4.989205221471119e-06 -2.9509854701770806e-05 3.2146098045007334e-05 1.4842845466986582e-06 4.132807603412654 -9.348493617110043e-06 -9.423200814401303e-06 -3.026171821662072e-07 -1.0490927714742052e-06 -3.8735673396223836e-06 1.9579226966872824e-05 3.316635213159503 0.00011493137714386421 0.0003365477873898245 -2.5387887644783725e-05 3.786199406409054 5.377661719228533 -1.6404666355262156 4.785980342973455 -5.0240999715558754e-06 -1.700781162912145e-05 -0.0003812493785424616 -3.7480050218727275e-05 -7.288265995191526e-06 2.2494205202218822e-05 3.5926573053595825 -9.209292077026612e-05 -1.2342735552572874e-06 -5.7558722009559285e-06 3.7267838636207045 -1.4360975317662285e-06 -9.462915044422286e-07 -1.0756915548785885e-05 1.3125414744169447e-05 -0.10958508868457648 -3.52875607297251e-05 4.6217718167187956 5.812270110653123 -3.935758810094654 -2.312884198241329 -3.531981010075973e-06 -5.19140425532276e-06 -2.5250675271244613e-07 2.166242539458057e-08 -3.425278680112088e-05 4.0254594668322175e-06 -3.251723496121128 -2.7801669084406396e-05 -0.00013933580885090426 -4.6612155985886764e-06 1.287941750515192e-06 -2.1377103410073017 -9.309391751630488e-07 -0.00010188129797867306 -3.749417843074193 5.784134183822427e-07 4.248831131443421 -3.9129573997606584e-05 3.5153555396502014 -8.812345542967088e-06 -2.0671025288905497e-05 -2.9616545383725934 -7.197307322349188e-06 -4.602989927451542e-05 -2.410294683620751 -1.241881332328456e-06 -2.530426992171029 5.441412389282258 1.6542070992952441e-06 -6.84123342988781e-05 -2.890237599128659 -0.0001454416052877932 -3.553994388945607 -3.106356382359502 -4.305957896705045e-06 -2.678803816484085 -2.9843157505055485e-05 -4.117765388548672 1.5458473155200174 -6.082151048672887e-06 -1.639981597212847e-05 6.0000040540780875 -5.479925325967761e-06 -4.278138791540459 -1.8511496455295723e-05 -1.8087948196491753e-05 1.5554829436851048e-06 7.682934184454847e-05 -1.4960482785327162e-05 0.06269760798246839 -2.4849153300130977 -3.367956762604134e-05 -1.7090891923499094e-06 2.4945007467343047e-06 -2.555480045293499e-06 -0.6830559376940246 -7.894688320707502e-05 4.594588468758157 3.825562243211017e-06 -4.020487855625674e-06 -4.767792126071041 -8.005107750630862e-06 -8.294170884083152e-07 -1.2083097292777294 -3.962376515909304e-05 4.264360770084377 -0.0002869934412385477 -0.007227227032550537 -5.659192105084117e-08 -1.0821515137445413e-05
U-Q,U-Q,U-Q -0.025573581614029086 -4.192537692375455e-05 -7.42469316771681e-06 -0.0007401441084896535 0.0001251767785510037 -1.7097609314098955e-05 -0.0003528941476753428 -2.5285365863311265e-05 1.0700876541628054e-05 -1.2859642482178192e-05 -8.49127611017144e-06 -7.900328390878378e-06 2.922761044110867e-06 -4.4588000114932744e-06 0.0005140527854318006 -5.9610009443104556e-05 4.066451068579715e-05 -3.157037521607913e-05 -6.398117870574729e-05 -7.498591530906641e-06 4.311259777903548e-07 1.3628497117302911 -4.773417137898386e-05 4.497544802781894e-06 -4.762367016567864e-06 2.54476111046183e-06 -4.41003492367471e-05 -7.21413952691812e-06 6.81286878622814e-06 -7.816607105269134e-05 -1.1604620843096785e-06 -5.991300457031937e-06 -3.177790237718935e-05 -1.2528420597238098e-05 -8.558302505174837e-05 -6.9304327921985e-06 -3.6599377647216104e-05 1.7409390222667131e-06 -3.733149136671698e-05 -0.00018630179946361149 -0.00013011449071396493 -1.462875812784497e-06 2.5152343023347514e-06 -4.563620933650693e-06 -7.990801045133957e-06 4.084363570822519e-07 -2.3699246304723793e-05 -6.374041157251543e-05 -6.898314961522141e-06 -2.3647823259386537e-05 -2.3936616347779982e-05 2.0428069898292126e-05 -1.294047360702804e-05 -1.4947930158903297e-06 1.2706922939112609e-05 -1.647467166555011e-05 -1.128001010900042e-05 3.887278576298066e-06 -1.7297639601298176e-06 -5.310176537441418e-05 -0.00017144833060005332 6.14450198782584e-06 -1.3329284754589415e-05 4.186326628374661e-06 -3.6674976053820765 -1.159115803258635e-05 -5.936685511062095e-06 -1.1416989152728469e-06 -8.158333467452047e-05 1.2170536616221057e-05 -1.8308450463357732e-06 -2.6971105004668303e-06 0.0006436444455126053 -7.63424561422724e-08 5.652130765828086e-07 -3.1387140832020102e-06 0.24218865665679298 3.919260726332357e-06 -1.7715659988694978e-05 -3.952646701144253e-05 -2.1238685793782496e-05 -2.6405687693503115e-06 4.182070872051842e-05 5.098385065022646e-07 0.000932053252970616 -3.722057635318742e-05 9.829453118832797e-07 -1.9088116622505735e-06 -7.620518812568025e-06 -7.779570198800943e-05 8.311135270472722e-06 1.0583141172312217e-05 -1.1576887120444689e-05 -4.690716293844782e-05 -4.81384765487973e-05 -3.4061807952379364 -0.6574753688633918 -2.291871893262224e-05 1.418866263568061e-06 -6.000059770735613 2.470377680206489e-05 -2.2706946214708216e-05 2.297718632932957e-05 -5.973246981408772e-06 3.775658996850791e-06 3.90251894914282e-07 0.09245837266713591 -8.215680419924334e-06 1.1579217133670843e-05 -1.4864282052414238e-05 4.9002790162546524e-06 -3.2890724966719095e-06 -8.871892005165081e-07 -4.266440455073595e-07 -0.00025999071765936903 -5.1257279396874135e-06 2.4683866301362875e-06 -7.8100052021852e-06 0.021286433212106586 0.3212299722871229 -3.315116304633908e-06 -5.862763825121949e-06 -1.6344860900460404e-06 -4.98466786241949e-06 -1.7791321360395191e-06 -5.8990212002758166e-05 0.00021161207860751266 -6.0393652695605634e-05
